<?xml version="1.0"?>
<opencv_storage>
<stage11>
  <maxWeakCount>6</maxWeakCount>
  <stageThreshold>-1.7505407333374023e+00</stageThreshold>
  <weakClassifiers>
    <_>
      <internalNodes>
        0 -1 4488170 3.2122917473316193e-03</internalNodes>
      <leafValues>
        -8.1043958663940430e-01 1.2422360479831696e-01</leafValues></_>
    <_>
      <internalNodes>
        0 -1 4315255 3.0478141270577908e-03</internalNodes>
      <leafValues>
        -8.6705565452575684e-01 2.5650379061698914e-01</leafValues></_>
    <_>
      <internalNodes>
        0 -1 4772769 -1.3476531021296978e-02</internalNodes>
      <leafValues>
        2.6025423407554626e-01 -8.1537514925003052e-01</leafValues></_>
    <_>
      <internalNodes>
        0 -1 1479961 -8.3272248506546021e-02</internalNodes>
      <leafValues>
        5.4447168111801147e-01 -4.9501594901084900e-01</leafValues></_>
    <_>
      <internalNodes>
        0 -1 3735866 -3.1462835613638163e-04</internalNodes>
      <leafValues>
        4.3988400697708130e-01 -5.2402287721633911e-01</leafValues></_>
    <_>
      <internalNodes>
        0 -1 4842611 -3.0467316508293152e-02</internalNodes>
      <leafValues>
        9.0452802181243896e-01 -2.7816778421401978e-01</leafValues></_></weakClassifiers></stage11>
</opencv_storage>
