<?xml version="1.0"?>
<opencv_storage>
<stage3>
  <maxWeakCount>5</maxWeakCount>
  <stageThreshold>-1.5643541812896729e+00</stageThreshold>
  <weakClassifiers>
    <_>
      <internalNodes>
        0 -1 2837658 -6.9273255765438080e-02</internalNodes>
      <leafValues>
        6.8047338724136353e-01 -7.5482404232025146e-01</leafValues></_>
    <_>
      <internalNodes>
        0 -1 4401368 1.2816060334444046e-02</internalNodes>
      <leafValues>
        -7.7689105272293091e-01 3.0109271407127380e-01</leafValues></_>
    <_>
      <internalNodes>
        0 -1 5502709 -1.4763840008527040e-03</internalNodes>
      <leafValues>
        2.7114477753639221e-01 -8.8208734989166260e-01</leafValues></_>
    <_>
      <internalNodes>
        0 -1 3131307 -1.2824688106775284e-02</internalNodes>
      <leafValues>
        4.8419904708862305e-01 -6.5356981754302979e-01</leafValues></_>
    <_>
      <internalNodes>
        0 -1 4119471 -8.3112120628356934e-02</internalNodes>
      <leafValues>
        3.4978604316711426e-01 -7.7380454540252686e-01</leafValues></_></weakClassifiers></stage3>
</opencv_storage>
