<?xml version="1.0"?>
<opencv_storage>
<stage14>
  <maxWeakCount>6</maxWeakCount>
  <stageThreshold>-1.2721536159515381e+00</stageThreshold>
  <weakClassifiers>
    <_>
      <internalNodes>
        0 -1 282989 -4.6879291534423828e-02</internalNodes>
      <leafValues>
        7.8325122594833374e-01 -6.2404245138168335e-01</leafValues></_>
    <_>
      <internalNodes>
        0 -1 2125372 -2.9591604834422469e-04</internalNodes>
      <leafValues>
        4.8995050787925720e-01 -6.4154702425003052e-01</leafValues></_>
    <_>
      <internalNodes>
        0 -1 1211289 -2.1690919529646635e-03</internalNodes>
      <leafValues>
        -8.5130584239959717e-01 2.8932198882102966e-01</leafValues></_>
    <_>
      <internalNodes>
        0 -1 859671 1.6526857507415116e-04</internalNodes>
      <leafValues>
        -8.6986792087554932e-01 2.7007043361663818e-01</leafValues></_>
    <_>
      <internalNodes>
        0 -1 71417 -1.2568713282234967e-04</internalNodes>
      <leafValues>
        -9.0878331661224365e-01 2.4469348788261414e-01</leafValues></_>
    <_>
      <internalNodes>
        0 -1 988858 -3.7080356851220131e-03</internalNodes>
      <leafValues>
        3.4282672405242920e-01 -7.1814012527465820e-01</leafValues></_></weakClassifiers></stage14>
</opencv_storage>
